digraph Tree {
node [shape=box, style="filled, rounded", color="black", fontname=helvetica] ;
edge [fontname=helvetica] ;
0 [label="X[0] <= 0.882\nmse = 0.1\nsamples = 200\nvalue = 0.336", fillcolor="#f9e4d4"] ;
1 [label="X[0] <= 0.163\nmse = 0.074\nsamples = 176\nvalue = 0.269", fillcolor="#fcefe6"] ;
0 -> 1 [labeldistance=2.5, labelangle=45, headlabel="True"] ;
2 [label="mse = 0.032\nsamples = 33\nvalue = 0.692", fillcolor="#eda977"] ;
1 -> 2 ;
3 [label="mse = 0.033\nsamples = 143\nvalue = 0.171", fillcolor="#ffffff"] ;
1 -> 3 ;
4 [label="X[0] <= 0.947\nmse = 0.017\nsamples = 24\nvalue = 0.827", fillcolor="#e99254"] ;
0 -> 4 [labeldistance=2.5, labelangle=-45, headlabel="False"] ;
5 [label="mse = 0.007\nsamples = 13\nvalue = 0.738", fillcolor="#eca16c"] ;
4 -> 5 ;
6 [label="mse = 0.008\nsamples = 11\nvalue = 0.933", fillcolor="#e58139"] ;
4 -> 6 ;
}